svm_type c_svc
kernel_type linear
nr_class 2
total_sv 13
rho 0.827264
label 1 -1
nr_sv 6 7
SV
0.004652500959048133 1:-0.017341 2:-0.357143 3:-0.047619 4:-0.767442 5:-0.642857 6:-0.7 7:-0.222222 8:-0.396226 9:-0.214286 10:-0.206349 11:-0.823529 12:-0.142857 13:0.111111 14:0.5 15:-1 16:-0.978495 17:0.631068 18:0.207547 19:-0.660377 20:-0.5 21:-0.463415 22:0.123288 23:-0.583333 24:-0.354839 25:1 26:-0.191489 27:-0.766234 28:1 29:0.0769231 30:0.37931 31:0.244094 32:0.470588 33:0.375 34:-0.127273 35:-0.421053 36:0.690141 37:0.0864198 38:-0.849057 39:-0.982482 40:-0.877402 41:-0.836938 42:-1 43:-0.457875 44:-0.834958 45:-0.942652 46:-0.781879 47:-0.604853 48:-0.876387 49:-0.691843 50:-0.707242 51:-0.836526 52:-0.731959 53:-0.77665 54:-0.952574 55:-0.616792 56:-0.679426 57:-0.879334 58:-0.893636 59:-0.788497 60:-0.97878 61:-0.808989 62:-0.952419 63:-0.761502 64:1 65:-0.184241 66:-0.558282 67:-0.841584 68:-0.810767 69:-0.829932 70:-0.868516 71:-0.616236 72:-0.899658 73:-0.900277 
0.03595959149327109 1:-0.526012 2:0.0714286 3:-0.047619 4:-0.581395 5:-0.214286 6:-0.9 7:-0.333333 8:-0.396226 9:-0.428571 10:-0.333333 11:-0.941176 12:-0.642857 13:0.333333 14:-0.7 15:-0.176471 16:-0.892473 17:0.0873786 18:-0.0943396 19:-0.886792 20:0.33871 21:-0.731707 22:-0.424658 23:-0.708333 24:-0.629032 25:0.526316 26:-0.191489 27:-0.350649 28:-0.294118 29:-0.5 30:-0.172414 31:0.181102 33:0.0625 34:-0.321212 35:-0.473684 36:0.577465 37:-0.111111 38:-1 39:-0.979562 40:-0.518756 41:-0.597338 42:-0.918159 43:-0.582418 44:-0.931124 45:-1 46:-0.842282 47:-0.722704 48:-0.847861 49:-0.933535 50:-0.932203 51:-0.979566 52:-0.850515 53:-0.659898 54:-0.949454 55:-1 56:-0.875598 57:-0.916782 58:-0.908182 59:-0.846011 60:-0.998232 61:-0.879213 62:-0.952419 63:1 64:-0.78836 65:-1 66:0.807771 67:-0.674029 68:-0.65416 69:-0.70068 70:-0.88906 71:-0.675277 72:-0.890536 73:-0.933518 
0.03248050480467355 1:0.0751445 2:-0.214286 3:0.333333 4:-0.581395 5:0.0714286 6:-0.7 7:-0.666667 8:0.811321 9:-0.642857 10:0.365079 11:-0.588235 12:-0.428571 13:1 14:0.2 15:-0.0588235 16:-0.72043 17:0.165049 18:0.660377 19:-1 20:-0.370968 21:-0.756098 22:-0.753425 23:-0.833333 24:-0.354839 25:0.368421 26:-0.361702 27:-0.662338 28:0.529412 29:-1 30:-0.0344828 31:-0.385827 32:-1 33:0.25 34:-0.466667 35:-0.578947 36:-0.577465 37:0.975309 38:-0.590296 39:-0.989294 40:-0.884721 41:-0.737105 42:-0.815857 43:-0.582418 44:-0.82976 45:-0.878136 46:-0.986577 47:-0.916811 48:-0.987322 49:-0.909366 50:-0.619414 51:-0.92848 52:-0.706186 53:-0.715736 54:-0.990016 55:-0.780409 56:-0.961722 57:-0.950069 58:-0.977273 59:-0.896104 60:-1 61:-0.88764 62:-0.987312 63:-1 64:-0.233862 65:-0.93511 66:-1 67:-0.95735 68:-0.87602 69:-0.986395 70:-0.666153 71:-0.852399 72:-0.913341 73:-0.936288 
0.03198858689650481 1:0.121387 2:-0.214286 3:0.714286 4:-0.906977 5:-0.732143 6:-0.7 7:-0.777778 8:0.811321 9:0.428571 10:-0.0793651 11:-0.882353 12:-0.5 13:0.888889 14:0.6 15:-0.764706 16:-0.462366 17:0.00970874 18:-0.54717 19:-0.811321 20:-0.5 21:-0.756098 22:-0.534247 23:-0.458333 24:-0.677419 25:0.105263 26:-0.0212766 27:-0.142857 28:0.0882353 29:-1 30:-0.37931 31:0.11811 32:0.0588235 33:0.0625 34:-0.466667 35:-0.736842 36:0.802817 37:-0.111111 38:-0.67655 39:-0.990916 40:-0.956084 41:-0.750416 42:-0.618926 43:-0.809524 44:-0.875244 45:-0.824373 46:-0.989933 47:-0.916811 48:-1 49:-0.873112 50:-0.545455 51:-0.92848 52:-0.93299 53:-0.695431 54:-0.843994 55:-0.623251 56:-0.880383 57:-0.983356 58:-0.980909 59:-0.940631 60:-0.971706 61:-0.977528 62:-0.987312 63:-0.8723 64:-0.206349 65:-0.92584 66:-0.93047 67:-1 68:-0.797716 69:-0.884354 70:-1 71:-0.852399 72:-0.958951 73:-0.922438 
0.0346986694034296 1:0.0289017 2:0.160714 3:-0.809524 4:-0.72093 5:-0.0714286 7:-0.555556 8:-0.132075 9:-0.482143 10:-0.380952 11:-0.882353 12:-0.285714 13:0.666667 14:-0.4 15:1 16:-0.548387 17:-0.300971 18:0.660377 19:-0.660377 20:-0.112903 21:-0.95122 22:-0.0958904 23:-0.208333 24:-0.290323 25:0.0526316 26:-0.276596 27:-0.558442 28:0.764706 29:-0.730769 30:0.103448 31:-0.0866142 32:-0.294118 33:1 34:-0.466667 35:-0.578947 36:0.15493 37:0.185185 38:-0.789757 39:-0.971127 40:-1 41:-0.793677 42:0.31202 43:-0.787546 44:-0.907732 45:-0.983871 46:-0.922819 47:-0.788562 48:0.359746 49:-0.812689 50:-0.668721 51:-1 52:-0.912371 53:-0.918782 54:-1 55:-0.93972 56:-0.851675 57:-0.866852 58:-1 59:-0.923933 60:-0.900973 61:-0.876404 62:-0.993656 63:-0.753991 64:-0.813757 65:-0.835458 66:-0.95092 67:-0.926885 68:-0.282219 69:-0.312925 70:-0.942476 71:-0.881919 72:-0.901938 73:-0.963989 
0.01956269667786958 1:0.537572 2:-0.571429 3:0.238095 4:-0.581395 5:-0.714286 6:-0.7 7:-0.222222 8:-0.698113 9:-0.857143 10:-0.396825 11:-0.808824 12:0.142857 13:0.777778 15:-0.735294 16:-0.548387 17:0.320388 18:-0.245283 19:-0.622642 20:-0.177419 21:-0.560976 22:-0.643836 23:-0.291667 24:-0.354839 25:0.486842 26:-0.191489 27:-0.350649 28:-0.294118 29:-1 30:-0.310345 31:-0.00787402 32:-0.294118 33:0.0625 34:-0.806061 35:-0.473684 36:0.126761 37:-0.308642 38:1 39:-0.915977 40:-0.934126 41:-0.830283 42:-0.97954 43:-0.70696 44:-0.931124 45:-0.596774 46:-0.922819 47:-0.691508 48:-0.914422 49:-0.703927 50:-0.924499 51:-0.948914 52:-0.974227 53:-0.796954 54:-0.772855 55:-0.948332 56:-0.755981 57:-0.92233 58:-0.962727 59:-1 60:-0.915119 61:-0.955056 62:-0.980967 63:-0.932394 64:-0.680423 65:-0.68482 66:-0.668712 67:-0.0845392 68:-0.849918 69:-0.918367 70:-0.967129 71:-0.940959 72:-0.874572 73:-0.867036 
-0.01158396323489392 1:-0.109827 2:-0.142857 3:-0.428571 4:-0.860465 5:-0.142857 6:-0.9 8:0.0566038 9:0.571429 10:1 11:-0.176471 12:-0.285714 13:-0.888889 14:-0.625 15:-0.647059 16:0.311828 17:-1 18:-0.471698 19:-0.773585 20:-0.564516 21:-0.707317 22:0.0136986 23:-0.5 24:-0.354839 25:-1 26:-1 27:0.272727 28:-0.529412 29:0.0769231 30:-0.862069 31:-0.826772 32:-0.808824 33:-0.484375 34:-0.709091 35:-1 36:-1 37:0.283951 38:-0.762803 39:-0.892295 40:-0.868253 41:-0.990017 42:-0.877238 43:1 44:-0.875244 45:-0.55914 46:-0.865772 47:-0.750433 48:-0.784469 49:-0.969789 50:-1 51:-0.64751 52:-0.78866 53:-0.319797 54:-0.956942 55:-0.578041 56:-0.827751 57:-0.825243 58:-0.984545 59:-0.703154 60:-0.971706 61:-0.69382 62:-0.972244 63:-0.94554 64:-0.92381 65:-0.830823 66:-0.635992 67:-0.879665 68:-0.761827 69:-0.965986 70:-0.827427 71:0.0774908 72:-0.942987 73:-1 
-0.01577461990561852 1:-0.0635838 2:-0.0714286 3:-0.642857 4:-0.674419 5:-0.0892857 6:-0.2 7:-0.861111 8:-1 10:-0.174603 11:-0.235294 13:-1 14:-0.7 15:-0.529412 16:0.311828 17:-0.533981 18:-0.698113 19:-0.679245 20:-0.306452 21:-0.756098 22:0.260274 23:-0.625 24:0.0967742 25:-0.526316 26:-0.787234 27:-0.116883 28:-0.5 29:0.461538 30:-1 31:-1 32:-0.941176 33:-0.4375 34:-0.709091 35:-0.842105 36:-0.549296 37:0.0864198 38:-0.87062 39:-0.985401 40:-0.908509 41:-1 42:-0.818414 43:-0.846154 44:-1 45:-0.924731 46:-0.630872 47:-0.181976 48:0.239303 49:-0.516616 50:-0.884438 51:0.443167 52:-0.974227 53:-0.675127 54:-0.992512 55:-0.677072 56:-0.870813 57:-0.841886 58:-0.991818 59:0.276438 60:-0.964633 61:-0.831461 62:-0.991277 63:-0.977465 64:-1 65:-0.937428 66:-0.869121 67:-0.907083 68:-0.879282 69:-1 70:-0.96302 71:-0.365314 72:-0.965792 73:-1 
-0.06826299461445574 1:-0.294798 2:0.464286 3:-0.571429 4:-0.988372 5:-0.0714286 6:-0.6 7:-0.777778 8:0.0566038 9:-0.142857 10:0.555556 11:-0.176471 12:0.0714286 13:-0.361111 14:-1 15:-0.647059 16:0.333333 17:-0.84466 18:-1 19:-0.896226 20:-1 21:-0.853659 22:0.123288 23:-0.552083 24:0.0967742 25:0.144737 26:-0.617021 27:0.87013 28:-0.558824 29:1 30:-0.793103 31:-0.952756 32:-0.661765 33:-0.3125 34:-0.69697 35:-0.842105 36:-0.323944 37:0.876543 38:-0.924528 39:-0.950041 40:-0.89753 41:-0.943428 42:-0.918159 43:-1 44:-0.976608 45:-0.448029 46:-0.842282 47:-0.802426 48:-0.711569 49:-0.800604 50:-0.967643 51:-0.831418 52:-0.742268 53:-0.527919 54:-0.968799 55:-0.705059 56:-0.842105 57:-0.847434 58:-0.995455 59:-0.745826 60:-0.992927 61:-0.738764 62:-0.996828 63:-0.913615 64:-1 65:-0.923523 66:-0.96319 67:-0.907083 68:-0.817292 69:-0.965986 70:-0.974319 71:-0.291513 72:-0.952109 73:-0.878116 
-0.005606897714380093 1:-0.849711 2:-1 3:0.333333 4:-0.953488 5:-0.714286 6:1 7:0.444444 8:0.509434 9:0.214286 10:-0.84127 11:-1 12:0.928571 13:-0.333333 14:0.7 15:-0.411765 16:0.139785 17:-0.0679612 18:0.509434 19:-0.471698 20:1 21:-0.95122 22:-0.424658 23:-0.708333 24:0.741935 25:0.210526 26:1 27:-0.766234 28:0.764706 29:-0.846154 30:0.172414 31:0.0551181 32:-0.0588235 33:0.25 34:-0.224242 35:-0.368421 36:0.577465 37:0.876543 38:0.315364 39:-0.736253 40:0.619396 41:-0.0748752 42:0.401535 43:-0.435897 44:-0.195582 45:0.367384 46:0.479866 47:-0.0745234 48:-0.0364501 49:0.0876133 50:1 51:1 52:1 53:-0.208122 54:1 55:0.823466 56:-0.0956938 57:1 58:-0.691818 59:-0.155844 60:1 61:1 62:-0.0991277 63:0.284507 64:-0.578836 65:1 66:1 67:0.879665 68:1 69:0.431973 70:-0.298408 71:0.476015 72:-0.945268 73:-0.141274 
-0.03090722309769758 1:-0.861272 2:-0.571429 3:0.642857 4:-1 5:-0.732143 6:0.4 7:0.777778 8:0.773585 9:0.285714 10:-1 11:-0.941176 12:0.196429 13:0.444444 14:1 15:-0.0588235 16:0.311828 17:0.0679612 18:0.358491 19:-0.622642 20:0.274194 21:-0.707317 22:-0.643836 23:-0.833333 24:-0.0322581 25:0.0526316 26:-0.446809 27:-0.350649 28:0.647059 29:-0.846154 30:0.724138 31:-0.889764 32:-0.823529 33:-1 34:-0.466667 35:-0.368421 36:-0.549296 37:0.975309 38:0.22372 39:-0.828062 40:0.698079 41:-0.148087 42:0.00767263 43:0.003663 44:-0.17089 45:0.164875 46:1 47:-0.0363951 48:-0.191759 49:-0.697885 50:-0.0338983 51:0.340996 52:0.329897 53:-0.360406 54:-0.863963 55:0.735199 56:-0.129187 57:-0.522885 58:-0.811818 59:-0.458256 60:-0.282051 61:-0.429775 62:0.218874 63:-0.248826 64:-0.695238 65:-0.425261 66:-0.439673 67:-0.308454 68:-0.435563 69:-0.722789 70:1 71:0.439114 72:-0.904219 73:-0.67036 
-0.02513800621100179 1:0.583815 2:0.142857 3:-0.619048 4:-0.906977 5:-0.5 6:0.3 7:-0.666667 8:0.207547 9:1 10:0.412698 11:0.102941 12:0.0714286 13:-0.333333 14:-0.4 15:0.529412 16:0.483871 17:-0.533981 18:-0.396226 19:-0.386792 20:-0.306452 21:0.0243902 22:0.123288 23:-0.25 24:0.16129 25:-0.526316 26:-0.446809 27:-0.246753 28:-0.352941 29:-0.0384615 30:-0.0344828 31:-0.0708661 32:-0.470588 33:-0.1875 34:1 35:-0.210526 36:0.352113 37:-0.209877 38:-0.525606 39:-0.961395 40:-0.646844 41:1 42:-0.736573 43:-0.934066 44:-0.239766 45:0.0716846 46:-0.771812 47:-0.466205 48:-0.62916 49:-0.619335 50:-0.283513 51:-0.50447 52:-0.603093 53:0.563452 54:-0.806552 55:-0.115178 56:0.62201 57:-0.803051 58:-0.966364 59:-0.597403 60:-0.669319 61:-0.691011 62:-0.383029 63:-0.673239 64:-0.688889 65:-0.705678 66:0.0961145 67:-0.963442 68:-0.7031 69:-0.0119048 70:-0.847971 71:-0.173432 72:-0.5439 73:-0.601108 
-0.00206884545674913 1:1 3:0.142857 4:1 5:1 6:0.8 7:0.527778 8:0.660377 9:0.357143 10:0.174603 11:0.705882 12:0.142857 15:-0.411765 16:1 17:1 18:-0.698113 19:0.396226 21:0.756098 22:0.671233 23:-0.25 24:0.677419 25:-0.421053 26:-0.617021 27:-0.220779 28:-0.176471 29:0.692308 30:0.37931 31:0.559055 32:-0.470588 33:-0.125 34:0.0666667 35:-0.421053 36:0.0140845 37:0.679012 38:-0.654987 39:-0.67429 40:-0.617566 41:-0.577371 42:-0.43734 43:-0.6337 44:-0.139701 45:-0.168459 46:-0.684564 47:-0.618718 48:-0.63233 49:-0.528701 50:-0.466872 51:-0.461047 52:-0.742268 53:-0.192893 54:-0.782215 55:0.10226 56:-1 57:-0.492372 58:-0.951818 59:-0.48423 60:-0.798408 61:-0.640449 62:-0.694687 63:-0.365258 64:-0.646561 65:-0.650058 66:-0.210634 67:-0.945164 68:-0.745514 69:-0.828231 70:0.0980996 71:1 72:0.124287 73:-0.847645 
