svm_type one_class
kernel_type rbf
gamma 0.0136986
nr_class 2
total_sv 12
rho 0.5
SV
0.5 1:122 2:128 3:144 4:100 5:124 6:120 7:104 8:108 9:95 10:144 11:119 12:101 13:132 14:104 15:116 16:80 17:164 18:153 19:112 20:136 21:164 22:136 23:104 24:120 25:200 26:136 27:92 28:104 29:84 30:116 31:160 32:152 33:108 34:116 35:80 36:140 37:96 38:86 39:216 40:140 41:104 42:92 43:124 44:139 45:192 46:418 47:186 48:131 49:202 50:144 51:80 52:84 53:60 54:116 55:267 56:217 57:120 58:203 59:198 60:121 61:112 62:216 63:328 64:153 65:213 66:68 67:140 68:124 69:124 70:124 71:80 72:145 73:128 
0.5 1:136 2:100 3:116 4:88 5:108 6:100 7:96 8:92 9:68 10:108 11:76 12:104 13:144 14:148 15:104 16:76 17:180 18:160 19:84 20:156 21:168 22:120 23:96 24:116 25:184 26:124 27:108 28:112 29:96 30:120 31:128 32:148 33:124 34:120 35:84 36:132 37:88 38:144 39:420 40:195 41:127 42:96 43:149 44:268 45:489 46:156 47:204 48:121 49:221 50:215 51:128 52:64 53:72 54:124 55:152 56:140 57:152 58:136 59:116 60:104 61:80 62:156 63:193 64:131 65:311 66:76 67:151 68:108 69:108 70:162 71:88 72:147 73:128 
0.5 1:144 2:122 3:108 4:116 5:112 6:96 7:80 8:88 9:84 10:116 11:96 12:92 13:137 14:112 15:69 16:76 17:140 18:124 19:84 20:120 21:176 22:112 23:108 24:104 25:168 26:117 27:96 28:96 29:88 30:136 31:132 32:144 33:104 34:76 35:92 36:128 37:88 38:126 39:162 40:124 41:140 42:96 43:128 44:155 45:202 46:150 47:120 48:84 49:159 50:154 51:88 52:56 53:68 54:116 55:357 56:175 57:100 58:152 59:96 60:108 61:80 62:144 63:214 64:112 65:224 66:48 67:124 68:108 69:120 70:125 71:44 72:156 73:116 
0.5 1:131 2:104 3:116 4:137 5:124 6:132 7:60 8:96 9:80 10:108 11:80 12:76 13:120 14:124 15:64 16:76 17:176 18:112 19:92 20:112 21:164 22:128 23:112 24:92 25:180 26:112 27:88 28:108 29:92 30:96 31:128 32:160 33:100 34:108 35:76 36:131 37:92 38:150 39:280 40:299 41:236 42:84 43:166 44:123 45:217 46:168 47:197 48:126 49:205 50:155 51:80 52:80 53:48 54:391 55:120 56:196 57:144 58:194 59:124 60:142 61:72 62:148 63:199 64:455 65:192 66:109 67:121 68:104 69:140 70:189 71:64 72:135 73:165 
0.5 1:128 2:112 3:117 4:132 5:68 6:87 7:76 8:108 9:135 10:120 11:100 12:44 13:136 14:136 15:63 16:68 17:116 18:128 19:112 20:155 21:155 22:103 23:116 24:104 25:148 26:124 27:104 28:108 29:76 30:140 31:123 32:140 33:132 34:108 35:92 36:128 37:124 38:100 39:183 40:129 41:124 42:426 43:92 44:165 45:258 46:136 47:100 48:116 49:144 50:152 51:124 52:28 53:90 54:445 55:195 56:186 57:139 58:148 59:120 60:180 61:108 62:219 63:159 64:595 65:148 66:101 67:100 68:140 69:136 70:571 71:60 72:178 73:96 
0.5 1:144 2:116 3:120 4:116 5:104 6:72 7:76 8:128 9:76 10:119 11:120 12:60 13:151 14:116 15:88 16:64 17:160 18:128 19:108 20:152 21:156 22:116 23:76 24:96 25:128 26:111 27:80 28:96 29:76 30:128 31:108 32:140 33:132 34:96 35:80 36:116 37:96 38:88 39:151 40:179 41:180 42:104 43:124 44:182 45:209 46:132 47:108 48:100 49:146 50:148 51:88 52:76 53:56 54:128 55:154 56:176 57:112 58:116 59:116 60:92 61:96 62:330 63:174 64:691 65:225 66:64 67:116 68:104 69:116 70:308 71:64 72:150 73:173 
0.5 1:144 2:116 3:108 4:84 5:116 6:76 7:100 8:112 9:144 10:128 11:120 12:72 13:140 14:136 15:116 16:64 17:132 18:168 19:96 20:100 21:116 22:100 23:112 24:99 25:160 26:120 27:100 28:124 29:85 30:176 31:120 32:168 33:132 34:100 35:116 36:144 37:112 38:112 39:92 40:128 41:76 42:112 43:92 44:392 45:200 46:203 47:140 48:108 49:136 50:124 51:72 52:64 53:76 54:116 55:439 56:163 57:60 58:88 59:76 60:92 61:76 62:116 63:150 64:519 65:210 66:68 67:751 68:108 69:104 70:195 71:56 72:163 73:140 
0.5 1:139 2:103 3:116 4:116 5:92 6:80 7:116 8:120 9:76 10:101 11:80 12:88 13:156 14:176 15:112 16:68 17:132 18:144 19:60 20:120 21:144 22:100 23:84 24:96 25:156 26:120 27:132 28:120 29:80 30:160 31:128 32:212 33:96 34:136 35:92 36:144 37:88 38:101 39:154 40:140 41:138 42:100 43:754 44:189 45:327 46:151 47:197 48:149 49:803 50:407 51:96 52:108 53:76 54:235 55:231 56:161 57:132 58:180 59:108 60:88 61:92 62:124 63:152 64:508 65:157 66:80 67:140 68:128 69:216 70:452 71:170 72:156 73:120 
0.5 1:116 2:108 3:144 4:115 5:95 6:67 7:89 8:97 9:81 10:97 11:68 12:49 13:140 14:97 15:108 16:64 17:156 18:141 19:91 20:151 21:123 22:92 23:112 24:100 25:148 26:128 27:91 28:131 29:75 30:131 31:132 32:180 33:131 34:120 35:80 36:135 37:97 38:117 39:155 40:163 41:120 42:88 43:121 44:168 45:162 46:155 47:189 48:136 49:162 50:224 51:80 52:105 53:39 54:120 55:77 56:145 57:183 58:100 59:91 60:104 61:92 62:129 63:219 64:205 65:272 66:80 67:120 68:116 69:144 70:123 71:76 72:125 73:107 
0.5 1:127 2:105 3:113 4:105 5:99 6:71 7:92 8:109 9:67 10:108 11:76 12:69 13:160 14:81 15:143 16:55 17:160 18:140 19:108 20:120 21:163 22:85 23:104 24:72 25:192 26:115 27:67 28:108 29:71 30:137 31:153 32:109 33:117 34:92 35:108 36:125 37:75 38:99 39:132 40:154 41:121 42:72 43:128 44:150 45:250 46:143 47:195 48:100 49:181 50:181 51:104 52:76 53:72 54:160 55:373 56:210 57:73 58:139 59:56 60:109 61:76 62:144 63:124 64:215 65:241 66:538 67:156 68:384 69:397 70:145 71:44 72:170 73:125 
0.5 1:144 2:133 3:68 4:104 5:120 6:104 7:92 8:103 9:85 10:89 11:72 12:68 13:148 14:100 15:148 16:76 17:120 18:132 19:96 20:124 21:108 22:104 23:128 24:100 25:136 26:116 27:84 28:136 29:75 30:136 31:131 32:144 33:172 34:104 35:96 36:105 37:96 38:99 39:185 40:80 41:135 42:573 43:112 44:173 45:135 46:144 47:161 48:497 49:186 50:339 51:72 52:84 53:40 54:88 55:88 56:168 57:140 58:75 59:77 60:136 61:92 62:112 63:227 64:184 65:199 66:80 67:120 68:302 69:488 70:144 71:56 72:168 73:85 
0.5 1:188 2:92 3:112 4:116 5:84 6:76 7:104 8:88 9:64 10:88 11:77 12:92 13:152 14:116 15:89 16:76 17:152 18:108 19:100 20:120 21:140 22:84 23:120 24:96 25:169 26:120 27:92 28:100 29:68 30:112 31:136 32:144 33:112 34:76 35:104 36:104 37:76 38:431 39:355 40:116 41:124 42:68 43:123 44:155 45:351 46:144 47:189 48:95 49:204 50:173 51:92 52:72 53:64 54:452 55:84 56:188 57:100 58:116 59:36 60:128 61:64 62:128 63:132 64:247 65:264 66:149 67:673 68:128 69:132 70:120 71:48 72:180 73:120 
