svm_type c_svc
kernel_type rbf
gamma 0.0136986
nr_class 2
total_sv 8
rho 0
label 1 -1
nr_sv 4 4
SV
1 1:122 2:128 3:144 4:100 5:124 6:120 7:104 8:108 9:95 10:144 11:119 12:101 13:132 14:104 15:116 16:80 17:164 18:153 19:112 20:136 21:164 22:136 23:104 24:120 25:200 26:136 27:92 28:104 29:84 30:116 31:160 32:152 33:108 34:116 35:80 36:140 37:96 38:86 39:216 40:140 41:104 42:92 43:124 44:139 45:192 46:418 47:186 48:131 49:202 50:144 51:80 52:84 53:60 54:116 55:267 56:217 57:120 58:203 59:198 60:121 61:112 62:216 63:328 64:153 65:213 66:68 67:140 68:124 69:124 70:124 71:80 72:145 73:128 
1 1:136 2:100 3:116 4:88 5:108 6:100 7:96 8:92 9:68 10:108 11:76 12:104 13:144 14:148 15:104 16:76 17:180 18:160 19:84 20:156 21:168 22:120 23:96 24:116 25:184 26:124 27:108 28:112 29:96 30:120 31:128 32:148 33:124 34:120 35:84 36:132 37:88 38:144 39:420 40:195 41:127 42:96 43:149 44:268 45:489 46:156 47:204 48:121 49:221 50:215 51:128 52:64 53:72 54:124 55:152 56:140 57:152 58:136 59:116 60:104 61:80 62:156 63:193 64:131 65:311 66:76 67:151 68:108 69:108 70:162 71:88 72:147 73:128 
1 1:144 2:122 3:108 4:116 5:112 6:96 7:80 8:88 9:84 10:116 11:96 12:92 13:137 14:112 15:69 16:76 17:140 18:124 19:84 20:120 21:176 22:112 23:108 24:104 25:168 26:117 27:96 28:96 29:88 30:136 31:132 32:144 33:104 34:76 35:92 36:128 37:88 38:126 39:162 40:124 41:140 42:96 43:128 44:155 45:202 46:150 47:120 48:84 49:159 50:154 51:88 52:56 53:68 54:116 55:357 56:175 57:100 58:152 59:96 60:108 61:80 62:144 63:214 64:112 65:224 66:48 67:124 68:108 69:120 70:125 71:44 72:156 73:116 
1 1:131 2:104 3:116 4:137 5:124 6:132 7:60 8:96 9:80 10:108 11:80 12:76 13:120 14:124 15:64 16:76 17:176 18:112 19:92 20:112 21:164 22:128 23:112 24:92 25:180 26:112 27:88 28:108 29:92 30:96 31:128 32:160 33:100 34:108 35:76 36:131 37:92 38:150 39:280 40:299 41:236 42:84 43:166 44:123 45:217 46:168 47:197 48:126 49:205 50:155 51:80 52:80 53:48 54:391 55:120 56:196 57:144 58:194 59:124 60:142 61:72 62:148 63:199 64:455 65:192 66:109 67:121 68:104 69:140 70:189 71:64 72:135 73:165 
-1 1:152 2:112 3:84 4:96 5:128 6:124 7:116 8:100 9:100 10:88 11:108 12:72 13:100 14:92 15:96 16:124 17:104 18:80 19:100 20:96 21:136 22:112 23:92 24:100 25:112 26:92 27:96 28:104 29:92 30:100 31:104 32:117 33:88 34:92 35:80 36:88 37:92 38:108 39:378 40:166 41:88 42:152 43:116 44:116 45:244 46:212 47:211 48:190 49:175 50:100 51:185 52:104 53:88 54:88 55:238 56:189 57:220 58:104 59:141 60:76 61:134 62:80 63:121 64:278 65:153 66:68 67:116 68:177 69:96 70:120 71:153 72:131 73:80 
-1 1:116 2:120 3:68 4:84 5:108 6:92 7:88 8:124 9:112 10:81 11:108 12:68 13:92 14:92 15:104 16:128 17:116 18:92 19:100 20:92 21:116 22:120 23:104 24:108 25:108 26:92 27:136 28:88 29:108 30:112 31:84 32:104 33:92 34:88 35:76 36:84 37:88 38:84 39:84 40:156 41:56 42:124 43:126 44:558 45:543 46:195 47:194 48:818 49:168 50:124 51:466 52:100 53:88 54:92 55:353 56:171 57:207 58:72 59:257 60:100 61:130 62:84 63:118 64:100 65:193 66:76 67:134 68:133 69:84 70:127 71:133 72:147 73:76 
-1 1:128 2:128 3:80 4:84 5:124 6:92 7:88 8:96 9:84 10:84 11:132 12:84 13:84 14:76 15:84 16:60 17:128 18:80 19:84 20:96 21:100 22:120 23:88 24:100 25:108 26:88 27:88 28:88 29:112 30:80 31:76 32:104 33:80 34:80 35:84 36:96 37:92 38:88 39:112 40:130 41:100 42:120 43:126 44:122 45:159 46:162 47:158 48:165 49:223 50:144 51:167 52:92 53:102 54:104 55:178 56:159 57:113 58:68 59:146 60:76 61:145 62:72 63:76 64:134 65:105 66:80 67:132 68:127 69:104 70:96 71:121 72:150 73:76 
-1 1:128 2:108 3:72 4:88 5:76 6:96 7:104 8:116 9:136 10:140 11:136 12:83 13:104 14:92 15:92 16:96 17:96 18:88 19:76 20:92 21:136 22:96 23:93 24:80 25:128 26:97 27:84 28:92 29:96 30:100 31:88 32:96 33:83 34:80 35:68 36:76 37:72 38:100 39:68 40:154 41:56 42:133 43:164 44:365 45:408 46:153 47:120 48:137 49:185 50:88 51:191 52:108 53:84 54:72 55:588 56:162 57:112 58:96 59:136 60:76 61:107 62:100 63:96 64:102 65:262 66:72 67:133 68:139 69:73 70:130 71:144 72:149 73:72 
